digraph Tree {
node [shape=box, style="filled, rounded", color="black", fontname="helvetica"] ;
edge [fontname="helvetica"] ;
0 [label="foF2 <= 11.567\nfriedman_mse = 0.228\nsamples = 1887\nvalue = -0.0", fillcolor="#eead7f"] ;
1 [label="O+ <= 99.65\nfriedman_mse = 0.222\nsamples = 1763\nvalue = 0.018", fillcolor="#eead7e"] ;
0 -> 1 [labeldistance=2.5, labelangle=45, headlabel="True"] ;
2 [label="hmF2 <= 256.3\nfriedman_mse = 0.25\nsamples = 342\nvalue = -0.133", fillcolor="#efb185"] ;
1 -> 2 ;
3 [label="friedman_mse = 0.156\nsamples = 83\nvalue = 0.698", fillcolor="#ea995f"] ;
2 -> 3 ;
4 [label="friedman_mse = 0.244\nsamples = 259\nvalue = -0.997", fillcolor="#f4caac"] ;
2 -> 4 ;
5 [label="O+ <= 986.5\nfriedman_mse = 0.209\nsamples = 1421\nvalue = 0.054", fillcolor="#eeac7c"] ;
1 -> 5 ;
6 [label="friedman_mse = 0.181\nsamples = 815\nvalue = 0.499", fillcolor="#eb9f68"] ;
5 -> 6 ;
7 [label="friedman_mse = 0.235\nsamples = 606\nvalue = -0.114", fillcolor="#efb184"] ;
5 -> 7 ;
8 [label="VTEC <= 12.3\nfriedman_mse = 0.239\nsamples = 124\nvalue = -0.253", fillcolor="#f0b58a"] ;
0 -> 8 [labeldistance=2.5, labelangle=-45, headlabel="False"] ;
9 [label="foF2 <= 11.577\nfriedman_mse = 0.147\nsamples = 39\nvalue = 0.172", fillcolor="#eda877"] ;
8 -> 9 ;
10 [label="friedman_mse = 0.0\nsamples = 1\nvalue = -2.842", fillcolor="#ffffff"] ;
9 -> 10 ;
11 [label="friedman_mse = 0.133\nsamples = 38\nvalue = 0.851", fillcolor="#e99558"] ;
9 -> 11 ;
12 [label="hmF2 <= 331.75\nfriedman_mse = 0.16\nsamples = 85\nvalue = -0.448", fillcolor="#f1ba93"] ;
8 -> 12 ;
13 [label="friedman_mse = 0.12\nsamples = 79\nvalue = -2.231", fillcolor="#fbede3"] ;
12 -> 13 ;
14 [label="friedman_mse = -0.0\nsamples = 6\nvalue = 1.543", fillcolor="#e58139"] ;
12 -> 14 ;
}